digraph Tree {
node [shape=box] ;
0 [label="X[1] <= 139.5\ngini = 0.446\nsamples = 614\nvalue = [408, 206]"] ;
1 [label="X[7] <= 28.5\ngini = 0.336\nsamples = 459\nvalue = [361, 98]"] ;
0 -> 1 [labeldistance=2.5, labelangle=45, headlabel="True"] ;
2 [label="X[5] <= 30.95\ngini = 0.183\nsamples = 255\nvalue = [229, 26]"] ;
1 -> 2 ;
3 [label="X[0] <= 7.5\ngini = 0.055\nsamples = 142\nvalue = [138, 4]"] ;
2 -> 3 ;
4 [label="X[1] <= 128.5\ngini = 0.042\nsamples = 141\nvalue = [138, 3]"] ;
3 -> 4 ;
5 [label="X[6] <= 0.672\ngini = 0.016\nsamples = 128\nvalue = [127, 1]"] ;
4 -> 5 ;
6 [label="gini = 0.0\nsamples = 112\nvalue = [112, 0]"] ;
5 -> 6 ;
7 [label="X[6] <= 0.686\ngini = 0.117\nsamples = 16\nvalue = [15, 1]"] ;
5 -> 7 ;
8 [label="gini = 0.0\nsamples = 1\nvalue = [0, 1]"] ;
7 -> 8 ;
9 [label="gini = 0.0\nsamples = 15\nvalue = [15, 0]"] ;
7 -> 9 ;
10 [label="X[7] <= 27.5\ngini = 0.26\nsamples = 13\nvalue = [11, 2]"] ;
4 -> 10 ;
11 [label="X[2] <= 56.0\ngini = 0.153\nsamples = 12\nvalue = [11, 1]"] ;
10 -> 11 ;
12 [label="X[0] <= 2.0\ngini = 0.5\nsamples = 2\nvalue = [1, 1]"] ;
11 -> 12 ;
13 [label="gini = 0.0\nsamples = 1\nvalue = [1, 0]"] ;
12 -> 13 ;
14 [label="gini = 0.0\nsamples = 1\nvalue = [0, 1]"] ;
12 -> 14 ;
15 [label="gini = 0.0\nsamples = 10\nvalue = [10, 0]"] ;
11 -> 15 ;
16 [label="gini = 0.0\nsamples = 1\nvalue = [0, 1]"] ;
10 -> 16 ;
17 [label="gini = 0.0\nsamples = 1\nvalue = [0, 1]"] ;
3 -> 17 ;
18 [label="X[2] <= 37.0\ngini = 0.314\nsamples = 113\nvalue = [91, 22]"] ;
2 -> 18 ;
19 [label="gini = 0.0\nsamples = 4\nvalue = [0, 4]"] ;
18 -> 19 ;
20 [label="X[1] <= 127.5\ngini = 0.276\nsamples = 109\nvalue = [91, 18]"] ;
18 -> 20 ;
21 [label="X[5] <= 31.1\ngini = 0.223\nsamples = 94\nvalue = [82, 12]"] ;
20 -> 21 ;
22 [label="gini = 0.0\nsamples = 1\nvalue = [0, 1]"] ;
21 -> 22 ;
23 [label="X[6] <= 1.272\ngini = 0.209\nsamples = 93\nvalue = [82, 11]"] ;
21 -> 23 ;
24 [label="X[6] <= 0.509\ngini = 0.194\nsamples = 92\nvalue = [82, 10]"] ;
23 -> 24 ;
25 [label="X[5] <= 49.1\ngini = 0.1\nsamples = 57\nvalue = [54, 3]"] ;
24 -> 25 ;
26 [label="X[5] <= 31.8\ngini = 0.069\nsamples = 56\nvalue = [54, 2]"] ;
25 -> 26 ;
27 [label="X[7] <= 24.5\ngini = 0.444\nsamples = 3\nvalue = [2, 1]"] ;
26 -> 27 ;
28 [label="gini = 0.0\nsamples = 2\nvalue = [2, 0]"] ;
27 -> 28 ;
29 [label="gini = 0.0\nsamples = 1\nvalue = [0, 1]"] ;
27 -> 29 ;
30 [label="X[2] <= 82.5\ngini = 0.037\nsamples = 53\nvalue = [52, 1]"] ;
26 -> 30 ;
31 [label="gini = 0.0\nsamples = 48\nvalue = [48, 0]"] ;
30 -> 31 ;
32 [label="X[2] <= 85.5\ngini = 0.32\nsamples = 5\nvalue = [4, 1]"] ;
30 -> 32 ;
33 [label="gini = 0.0\nsamples = 1\nvalue = [0, 1]"] ;
32 -> 33 ;
34 [label="gini = 0.0\nsamples = 4\nvalue = [4, 0]"] ;
32 -> 34 ;
35 [label="gini = 0.0\nsamples = 1\nvalue = [0, 1]"] ;
25 -> 35 ;
36 [label="X[6] <= 0.544\ngini = 0.32\nsamples = 35\nvalue = [28, 7]"] ;
24 -> 36 ;
37 [label="X[3] <= 33.5\ngini = 0.49\nsamples = 7\nvalue = [3, 4]"] ;
36 -> 37 ;
38 [label="X[7] <= 26.5\ngini = 0.375\nsamples = 4\nvalue = [3, 1]"] ;
37 -> 38 ;
39 [label="gini = 0.0\nsamples = 3\nvalue = [3, 0]"] ;
38 -> 39 ;
40 [label="gini = 0.0\nsamples = 1\nvalue = [0, 1]"] ;
38 -> 40 ;
41 [label="gini = 0.0\nsamples = 3\nvalue = [0, 3]"] ;
37 -> 41 ;
42 [label="X[6] <= 0.741\ngini = 0.191\nsamples = 28\nvalue = [25, 3]"] ;
36 -> 42 ;
43 [label="gini = 0.0\nsamples = 17\nvalue = [17, 0]"] ;
42 -> 43 ;
44 [label="X[2] <= 67.0\ngini = 0.397\nsamples = 11\nvalue = [8, 3]"] ;
42 -> 44 ;
45 [label="X[1] <= 92.5\ngini = 0.5\nsamples = 6\nvalue = [3, 3]"] ;
44 -> 45 ;
46 [label="gini = 0.0\nsamples = 2\nvalue = [2, 0]"] ;
45 -> 46 ;
47 [label="X[2] <= 57.0\ngini = 0.375\nsamples = 4\nvalue = [1, 3]"] ;
45 -> 47 ;
48 [label="gini = 0.0\nsamples = 1\nvalue = [1, 0]"] ;
47 -> 48 ;
49 [label="gini = 0.0\nsamples = 3\nvalue = [0, 3]"] ;
47 -> 49 ;
50 [label="gini = 0.0\nsamples = 5\nvalue = [5, 0]"] ;
44 -> 50 ;
51 [label="gini = 0.0\nsamples = 1\nvalue = [0, 1]"] ;
23 -> 51 ;
52 [label="X[6] <= 0.311\ngini = 0.48\nsamples = 15\nvalue = [9, 6]"] ;
20 -> 52 ;
53 [label="X[2] <= 67.0\ngini = 0.245\nsamples = 7\nvalue = [6, 1]"] ;
52 -> 53 ;
54 [label="gini = 0.0\nsamples = 1\nvalue = [0, 1]"] ;
53 -> 54 ;
55 [label="gini = 0.0\nsamples = 6\nvalue = [6, 0]"] ;
53 -> 55 ;
56 [label="X[0] <= 0.5\ngini = 0.469\nsamples = 8\nvalue = [3, 5]"] ;
52 -> 56 ;
57 [label="gini = 0.0\nsamples = 3\nvalue = [0, 3]"] ;
56 -> 57 ;
58 [label="X[4] <= 199.5\ngini = 0.48\nsamples = 5\nvalue = [3, 2]"] ;
56 -> 58 ;
59 [label="X[6] <= 0.857\ngini = 0.444\nsamples = 3\nvalue = [1, 2]"] ;
58 -> 59 ;
60 [label="gini = 0.0\nsamples = 1\nvalue = [0, 1]"] ;
59 -> 60 ;
61 [label="X[3] <= 21.0\ngini = 0.5\nsamples = 2\nvalue = [1, 1]"] ;
59 -> 61 ;
62 [label="gini = 0.0\nsamples = 1\nvalue = [0, 1]"] ;
61 -> 62 ;
63 [label="gini = 0.0\nsamples = 1\nvalue = [1, 0]"] ;
61 -> 63 ;
64 [label="gini = 0.0\nsamples = 2\nvalue = [2, 0]"] ;
58 -> 64 ;
65 [label="X[5] <= 26.95\ngini = 0.457\nsamples = 204\nvalue = [132, 72]"] ;
1 -> 65 ;
66 [label="X[5] <= 9.8\ngini = 0.087\nsamples = 44\nvalue = [42, 2]"] ;
65 -> 66 ;
67 [label="X[0] <= 7.5\ngini = 0.5\nsamples = 2\nvalue = [1, 1]"] ;
66 -> 67 ;
68 [label="gini = 0.0\nsamples = 1\nvalue = [1, 0]"] ;
67 -> 68 ;
69 [label="gini = 0.0\nsamples = 1\nvalue = [0, 1]"] ;
67 -> 69 ;
70 [label="X[1] <= 133.0\ngini = 0.046\nsamples = 42\nvalue = [41, 1]"] ;
66 -> 70 ;
71 [label="gini = 0.0\nsamples = 36\nvalue = [36, 0]"] ;
70 -> 71 ;
72 [label="X[5] <= 24.0\ngini = 0.278\nsamples = 6\nvalue = [5, 1]"] ;
70 -> 72 ;
73 [label="gini = 0.0\nsamples = 1\nvalue = [0, 1]"] ;
72 -> 73 ;
74 [label="gini = 0.0\nsamples = 5\nvalue = [5, 0]"] ;
72 -> 74 ;
75 [label="X[1] <= 96.5\ngini = 0.492\nsamples = 160\nvalue = [90, 70]"] ;
65 -> 75 ;
76 [label="X[6] <= 0.716\ngini = 0.202\nsamples = 35\nvalue = [31, 4]"] ;
75 -> 76 ;
77 [label="gini = 0.0\nsamples = 25\nvalue = [25, 0]"] ;
76 -> 77 ;
78 [label="X[4] <= 28.5\ngini = 0.48\nsamples = 10\nvalue = [6, 4]"] ;
76 -> 78 ;
79 [label="gini = 0.0\nsamples = 3\nvalue = [0, 3]"] ;
78 -> 79 ;
80 [label="X[5] <= 28.45\ngini = 0.245\nsamples = 7\nvalue = [6, 1]"] ;
78 -> 80 ;
81 [label="gini = 0.0\nsamples = 1\nvalue = [0, 1]"] ;
80 -> 81 ;
82 [label="gini = 0.0\nsamples = 6\nvalue = [6, 0]"] ;
80 -> 82 ;
83 [label="X[6] <= 0.561\ngini = 0.498\nsamples = 125\nvalue = [59, 66]"] ;
75 -> 83 ;
84 [label="X[7] <= 54.5\ngini = 0.491\nsamples = 88\nvalue = [50, 38]"] ;
83 -> 84 ;
85 [label="X[6] <= 0.2\ngini = 0.499\nsamples = 80\nvalue = [42, 38]"] ;
84 -> 85 ;
86 [label="X[0] <= 5.5\ngini = 0.332\nsamples = 19\nvalue = [15, 4]"] ;
85 -> 86 ;
87 [label="gini = 0.0\nsamples = 10\nvalue = [10, 0]"] ;
86 -> 87 ;
88 [label="X[2] <= 69.0\ngini = 0.494\nsamples = 9\nvalue = [5, 4]"] ;
86 -> 88 ;
89 [label="gini = 0.0\nsamples = 2\nvalue = [2, 0]"] ;
88 -> 89 ;
90 [label="X[2] <= 89.0\ngini = 0.49\nsamples = 7\nvalue = [3, 4]"] ;
88 -> 90 ;
91 [label="X[7] <= 38.5\ngini = 0.32\nsamples = 5\nvalue = [1, 4]"] ;
90 -> 91 ;
92 [label="X[2] <= 76.0\ngini = 0.5\nsamples = 2\nvalue = [1, 1]"] ;
91 -> 92 ;
93 [label="gini = 0.0\nsamples = 1\nvalue = [1, 0]"] ;
92 -> 93 ;
94 [label="gini = 0.0\nsamples = 1\nvalue = [0, 1]"] ;
92 -> 94 ;
95 [label="gini = 0.0\nsamples = 3\nvalue = [0, 3]"] ;
91 -> 95 ;
96 [label="gini = 0.0\nsamples = 2\nvalue = [2, 0]"] ;
90 -> 96 ;
97 [label="X[5] <= 41.5\ngini = 0.493\nsamples = 61\nvalue = [27, 34]"] ;
85 -> 97 ;
98 [label="X[3] <= 35.5\ngini = 0.499\nsamples = 56\nvalue = [27, 29]"] ;
97 -> 98 ;
99 [label="X[6] <= 0.262\ngini = 0.485\nsamples = 46\nvalue = [19, 27]"] ;
98 -> 99 ;
100 [label="X[1] <= 103.0\ngini = 0.32\nsamples = 15\nvalue = [3, 12]"] ;
99 -> 100 ;
101 [label="gini = 0.0\nsamples = 1\nvalue = [1, 0]"] ;
100 -> 101 ;
102 [label="X[0] <= 9.5\ngini = 0.245\nsamples = 14\nvalue = [2, 12]"] ;
100 -> 102 ;
103 [label="gini = 0.0\nsamples = 10\nvalue = [0, 10]"] ;
102 -> 103 ;
104 [label="X[4] <= 57.5\ngini = 0.5\nsamples = 4\nvalue = [2, 2]"] ;
102 -> 104 ;
105 [label="gini = 0.0\nsamples = 2\nvalue = [2, 0]"] ;
104 -> 105 ;
106 [label="gini = 0.0\nsamples = 2\nvalue = [0, 2]"] ;
104 -> 106 ;
107 [label="X[2] <= 81.0\ngini = 0.499\nsamples = 31\nvalue = [16, 15]"] ;
99 -> 107 ;
108 [label="X[6] <= 0.379\ngini = 0.486\nsamples = 24\nvalue = [10, 14]"] ;
107 -> 108 ;
109 [label="X[4] <= 100.5\ngini = 0.355\nsamples = 13\nvalue = [3, 10]"] ;
108 -> 109 ;
110 [label="X[2] <= 30.0\ngini = 0.165\nsamples = 11\nvalue = [1, 10]"] ;
109 -> 110 ;
111 [label="gini = 0.0\nsamples = 1\nvalue = [1, 0]"] ;
110 -> 111 ;
112 [label="gini = 0.0\nsamples = 10\nvalue = [0, 10]"] ;
110 -> 112 ;
113 [label="gini = 0.0\nsamples = 2\nvalue = [2, 0]"] ;
109 -> 113 ;
114 [label="X[3] <= 25.0\ngini = 0.463\nsamples = 11\nvalue = [7, 4]"] ;
108 -> 114 ;
115 [label="X[6] <= 0.398\ngini = 0.5\nsamples = 8\nvalue = [4, 4]"] ;
114 -> 115 ;
116 [label="gini = 0.0\nsamples = 2\nvalue = [2, 0]"] ;
115 -> 116 ;
117 [label="X[1] <= 136.0\ngini = 0.444\nsamples = 6\nvalue = [2, 4]"] ;
115 -> 117 ;
118 [label="X[0] <= 5.0\ngini = 0.32\nsamples = 5\nvalue = [1, 4]"] ;
117 -> 118 ;
119 [label="X[2] <= 73.0\ngini = 0.5\nsamples = 2\nvalue = [1, 1]"] ;
118 -> 119 ;
120 [label="gini = 0.0\nsamples = 1\nvalue = [1, 0]"] ;
119 -> 120 ;
121 [label="gini = 0.0\nsamples = 1\nvalue = [0, 1]"] ;
119 -> 121 ;
122 [label="gini = 0.0\nsamples = 3\nvalue = [0, 3]"] ;
118 -> 122 ;
123 [label="gini = 0.0\nsamples = 1\nvalue = [1, 0]"] ;
117 -> 123 ;
124 [label="gini = 0.0\nsamples = 3\nvalue = [3, 0]"] ;
114 -> 124 ;
125 [label="X[6] <= 0.37\ngini = 0.245\nsamples = 7\nvalue = [6, 1]"] ;
107 -> 125 ;
126 [label="gini = 0.0\nsamples = 5\nvalue = [5, 0]"] ;
125 -> 126 ;
127 [label="X[5] <= 31.45\ngini = 0.5\nsamples = 2\nvalue = [1, 1]"] ;
125 -> 127 ;
128 [label="gini = 0.0\nsamples = 1\nvalue = [1, 0]"] ;
127 -> 128 ;
129 [label="gini = 0.0\nsamples = 1\nvalue = [0, 1]"] ;
127 -> 129 ;
130 [label="X[2] <= 69.0\ngini = 0.32\nsamples = 10\nvalue = [8, 2]"] ;
98 -> 130 ;
131 [label="X[7] <= 35.0\ngini = 0.444\nsamples = 3\nvalue = [1, 2]"] ;
130 -> 131 ;
132 [label="gini = 0.0\nsamples = 1\nvalue = [1, 0]"] ;
131 -> 132 ;
133 [label="gini = 0.0\nsamples = 2\nvalue = [0, 2]"] ;
131 -> 133 ;
134 [label="gini = 0.0\nsamples = 7\nvalue = [7, 0]"] ;
130 -> 134 ;
135 [label="gini = 0.0\nsamples = 5\nvalue = [0, 5]"] ;
97 -> 135 ;
136 [label="gini = 0.0\nsamples = 8\nvalue = [8, 0]"] ;
84 -> 136 ;
137 [label="X[6] <= 1.395\ngini = 0.368\nsamples = 37\nvalue = [9, 28]"] ;
83 -> 137 ;
138 [label="X[3] <= 54.5\ngini = 0.32\nsamples = 35\nvalue = [7, 28]"] ;
137 -> 138 ;
139 [label="X[3] <= 21.0\ngini = 0.291\nsamples = 34\nvalue = [6, 28]"] ;
138 -> 139 ;
140 [label="X[6] <= 0.9\ngini = 0.459\nsamples = 14\nvalue = [5, 9]"] ;
139 -> 140 ;
141 [label="X[0] <= 9.0\ngini = 0.5\nsamples = 10\nvalue = [5, 5]"] ;
140 -> 141 ;
142 [label="X[6] <= 0.729\ngini = 0.469\nsamples = 8\nvalue = [5, 3]"] ;
141 -> 142 ;
143 [label="gini = 0.0\nsamples = 3\nvalue = [3, 0]"] ;
142 -> 143 ;
144 [label="X[6] <= 0.765\ngini = 0.48\nsamples = 5\nvalue = [2, 3]"] ;
142 -> 144 ;
145 [label="gini = 0.0\nsamples = 3\nvalue = [0, 3]"] ;
144 -> 145 ;
146 [label="gini = 0.0\nsamples = 2\nvalue = [2, 0]"] ;
144 -> 146 ;
147 [label="gini = 0.0\nsamples = 2\nvalue = [0, 2]"] ;
141 -> 147 ;
148 [label="gini = 0.0\nsamples = 4\nvalue = [0, 4]"] ;
140 -> 148 ;
149 [label="X[4] <= 225.0\ngini = 0.095\nsamples = 20\nvalue = [1, 19]"] ;
139 -> 149 ;
150 [label="gini = 0.0\nsamples = 18\nvalue = [0, 18]"] ;
149 -> 150 ;
151 [label="X[5] <= 31.15\ngini = 0.5\nsamples = 2\nvalue = [1, 1]"] ;
149 -> 151 ;
152 [label="gini = 0.0\nsamples = 1\nvalue = [0, 1]"] ;
151 -> 152 ;
153 [label="gini = 0.0\nsamples = 1\nvalue = [1, 0]"] ;
151 -> 153 ;
154 [label="gini = 0.0\nsamples = 1\nvalue = [1, 0]"] ;
138 -> 154 ;
155 [label="gini = 0.0\nsamples = 2\nvalue = [2, 0]"] ;
137 -> 155 ;
156 [label="X[1] <= 166.5\ngini = 0.423\nsamples = 155\nvalue = [47, 108]"] ;
0 -> 156 [labeldistance=2.5, labelangle=-45, headlabel="False"] ;
157 [label="X[5] <= 29.95\ngini = 0.493\nsamples = 93\nvalue = [41, 52]"] ;
156 -> 157 ;
158 [label="X[6] <= 0.179\ngini = 0.375\nsamples = 24\nvalue = [18, 6]"] ;
157 -> 158 ;
159 [label="X[6] <= 0.151\ngini = 0.444\nsamples = 3\nvalue = [1, 2]"] ;
158 -> 159 ;
160 [label="gini = 0.0\nsamples = 1\nvalue = [1, 0]"] ;
159 -> 160 ;
161 [label="gini = 0.0\nsamples = 2\nvalue = [0, 2]"] ;
159 -> 161 ;
162 [label="X[2] <= 25.0\ngini = 0.308\nsamples = 21\nvalue = [17, 4]"] ;
158 -> 162 ;
163 [label="gini = 0.0\nsamples = 1\nvalue = [0, 1]"] ;
162 -> 163 ;
164 [label="X[4] <= 276.5\ngini = 0.255\nsamples = 20\nvalue = [17, 3]"] ;
162 -> 164 ;
165 [label="X[1] <= 154.5\ngini = 0.188\nsamples = 19\nvalue = [17, 2]"] ;
164 -> 165 ;
166 [label="gini = 0.0\nsamples = 12\nvalue = [12, 0]"] ;
165 -> 166 ;
167 [label="X[3] <= 8.5\ngini = 0.408\nsamples = 7\nvalue = [5, 2]"] ;
165 -> 167 ;
168 [label="gini = 0.0\nsamples = 5\nvalue = [5, 0]"] ;
167 -> 168 ;
169 [label="gini = 0.0\nsamples = 2\nvalue = [0, 2]"] ;
167 -> 169 ;
170 [label="gini = 0.0\nsamples = 1\nvalue = [0, 1]"] ;
164 -> 170 ;
171 [label="X[3] <= 6.5\ngini = 0.444\nsamples = 69\nvalue = [23, 46]"] ;
157 -> 171 ;
172 [label="X[6] <= 0.228\ngini = 0.165\nsamples = 22\nvalue = [2, 20]"] ;
171 -> 172 ;
173 [label="X[6] <= 0.178\ngini = 0.408\nsamples = 7\nvalue = [2, 5]"] ;
172 -> 173 ;
174 [label="gini = 0.0\nsamples = 4\nvalue = [0, 4]"] ;
173 -> 174 ;
175 [label="X[7] <= 38.0\ngini = 0.444\nsamples = 3\nvalue = [2, 1]"] ;
173 -> 175 ;
176 [label="gini = 0.0\nsamples = 1\nvalue = [0, 1]"] ;
175 -> 176 ;
177 [label="gini = 0.0\nsamples = 2\nvalue = [2, 0]"] ;
175 -> 177 ;
178 [label="gini = 0.0\nsamples = 15\nvalue = [0, 15]"] ;
172 -> 178 ;
179 [label="X[7] <= 23.5\ngini = 0.494\nsamples = 47\nvalue = [21, 26]"] ;
171 -> 179 ;
180 [label="gini = 0.0\nsamples = 5\nvalue = [5, 0]"] ;
179 -> 180 ;
181 [label="X[6] <= 0.385\ngini = 0.472\nsamples = 42\nvalue = [16, 26]"] ;
179 -> 181 ;
182 [label="X[4] <= 460.0\ngini = 0.469\nsamples = 16\nvalue = [10, 6]"] ;
181 -> 182 ;
183 [label="X[5] <= 44.45\ngini = 0.408\nsamples = 14\nvalue = [10, 4]"] ;
182 -> 183 ;
184 [label="X[2] <= 71.0\ngini = 0.298\nsamples = 11\nvalue = [9, 2]"] ;
183 -> 184 ;
185 [label="X[3] <= 15.5\ngini = 0.444\nsamples = 3\nvalue = [1, 2]"] ;
184 -> 185 ;
186 [label="gini = 0.0\nsamples = 1\nvalue = [1, 0]"] ;
185 -> 186 ;
187 [label="gini = 0.0\nsamples = 2\nvalue = [0, 2]"] ;
185 -> 187 ;
188 [label="gini = 0.0\nsamples = 8\nvalue = [8, 0]"] ;
184 -> 188 ;
189 [label="X[1] <= 156.0\ngini = 0.444\nsamples = 3\nvalue = [1, 2]"] ;
183 -> 189 ;
190 [label="gini = 0.0\nsamples = 2\nvalue = [0, 2]"] ;
189 -> 190 ;
191 [label="gini = 0.0\nsamples = 1\nvalue = [1, 0]"] ;
189 -> 191 ;
192 [label="gini = 0.0\nsamples = 2\nvalue = [0, 2]"] ;
182 -> 192 ;
193 [label="X[1] <= 164.5\ngini = 0.355\nsamples = 26\nvalue = [6, 20]"] ;
181 -> 193 ;
194 [label="X[6] <= 1.088\ngini = 0.32\nsamples = 25\nvalue = [5, 20]"] ;
193 -> 194 ;
195 [label="X[7] <= 28.5\ngini = 0.278\nsamples = 24\nvalue = [4, 20]"] ;
194 -> 195 ;
196 [label="X[7] <= 26.0\ngini = 0.469\nsamples = 8\nvalue = [3, 5]"] ;
195 -> 196 ;
197 [label="gini = 0.0\nsamples = 4\nvalue = [0, 4]"] ;
196 -> 197 ;
198 [label="X[4] <= 192.5\ngini = 0.375\nsamples = 4\nvalue = [3, 1]"] ;
196 -> 198 ;
199 [label="gini = 0.0\nsamples = 3\nvalue = [3, 0]"] ;
198 -> 199 ;
200 [label="gini = 0.0\nsamples = 1\nvalue = [0, 1]"] ;
198 -> 200 ;
201 [label="X[4] <= 333.5\ngini = 0.117\nsamples = 16\nvalue = [1, 15]"] ;
195 -> 201 ;
202 [label="gini = 0.0\nsamples = 14\nvalue = [0, 14]"] ;
201 -> 202 ;
203 [label="X[2] <= 64.0\ngini = 0.5\nsamples = 2\nvalue = [1, 1]"] ;
201 -> 203 ;
204 [label="gini = 0.0\nsamples = 1\nvalue = [0, 1]"] ;
203 -> 204 ;
205 [label="gini = 0.0\nsamples = 1\nvalue = [1, 0]"] ;
203 -> 205 ;
206 [label="gini = 0.0\nsamples = 1\nvalue = [1, 0]"] ;
194 -> 206 ;
207 [label="gini = 0.0\nsamples = 1\nvalue = [1, 0]"] ;
193 -> 207 ;
208 [label="X[5] <= 23.1\ngini = 0.175\nsamples = 62\nvalue = [6, 56]"] ;
156 -> 208 ;
209 [label="gini = 0.0\nsamples = 1\nvalue = [1, 0]"] ;
208 -> 209 ;
210 [label="X[6] <= 1.428\ngini = 0.15\nsamples = 61\nvalue = [5, 56]"] ;
208 -> 210 ;
211 [label="X[6] <= 0.307\ngini = 0.1\nsamples = 57\nvalue = [3, 54]"] ;
210 -> 211 ;
212 [label="X[6] <= 0.291\ngini = 0.266\nsamples = 19\nvalue = [3, 16]"] ;
211 -> 212 ;
213 [label="X[0] <= 9.0\ngini = 0.198\nsamples = 18\nvalue = [2, 16]"] ;
212 -> 213 ;
214 [label="X[6] <= 0.27\ngini = 0.117\nsamples = 16\nvalue = [1, 15]"] ;
213 -> 214 ;
215 [label="gini = 0.0\nsamples = 13\nvalue = [0, 13]"] ;
214 -> 215 ;
216 [label="X[5] <= 34.75\ngini = 0.444\nsamples = 3\nvalue = [1, 2]"] ;
214 -> 216 ;
217 [label="gini = 0.0\nsamples = 1\nvalue = [1, 0]"] ;
216 -> 217 ;
218 [label="gini = 0.0\nsamples = 2\nvalue = [0, 2]"] ;
216 -> 218 ;
219 [label="X[6] <= 0.206\ngini = 0.5\nsamples = 2\nvalue = [1, 1]"] ;
213 -> 219 ;
220 [label="gini = 0.0\nsamples = 1\nvalue = [1, 0]"] ;
219 -> 220 ;
221 [label="gini = 0.0\nsamples = 1\nvalue = [0, 1]"] ;
219 -> 221 ;
222 [label="gini = 0.0\nsamples = 1\nvalue = [1, 0]"] ;
212 -> 222 ;
223 [label="gini = 0.0\nsamples = 38\nvalue = [0, 38]"] ;
211 -> 223 ;
224 [label="X[0] <= 3.5\ngini = 0.5\nsamples = 4\nvalue = [2, 2]"] ;
210 -> 224 ;
225 [label="gini = 0.0\nsamples = 2\nvalue = [0, 2]"] ;
224 -> 225 ;
226 [label="gini = 0.0\nsamples = 2\nvalue = [2, 0]"] ;
224 -> 226 ;
}